-10.806877574540156
-45.03780202632751
-11.823532597772964
45.32393049688233
-236.13855806808255
99.48101425271419
-207.32409185278024
-67.67309187087176
-84.28744644051707
-148.92369916982182
-143.09965525664273
-87.76487626048768
-152.13180161144348
-147.82707314592844
15.227008769650428
-168.24845081535543
-35.13235613290728
-277.9491481519343
127.98002852529964
69.67113035872296
0.6091069141371008
9.023242400723063
44.305986203350315
148.15755416624114
-63.28203465336259
-132.8941458870517
22.91475024382023
-88.24730209967268
-100.95355187775172
-74.26231477756488
-31.88393523353276
-94.99129973046638
-142.03138665426363
-148.82345026900208
-30.155350212969225
-4.953323513317507
-187.09019937032065
199.4097705908028
-121.77345893523432
67.61218255895788
-55.16450541472251
-124.45898424219838
126.20049632994764
-143.9998203387359
45.17515169424876
-74.88144480313184
33.23887576986375
-78.72677777731428
114.85693459194889
-29.12831928814976
-137.4969956248295
-19.89216279606131
31.18142224508241
-3.219120170641684
-156.18427031393196
37.84274637515503
-80.66800562951302
165.23497011330022
36.885147840553884
-85.65423023624835
-121.22140988823314
-101.89125906175576
237.39634410095343
-26.324148209610197
-55.70696391093701
-35.45043963154153
-2.951699342599074
143.4996442362445
-121.98544058946536
-231.06587719676003
-139.14158754577466
-22.75139548612797
40.74904842714605
136.93610318044205
-52.29730406557437
131.0067967172947
106.19690065634533
52.5177766956397
11.565026429829395
24.94004662318452
89.38755458083982
48.298863412735194
3.580287513408699
-174.5403798232919
-66.0276913468486
15.330039257913985
-41.366398082581114
6.895007252317182
100.66590066203118
-64.53549384024936
-65.65601369398996
88.88348955958642
115.31689408693457
-31.64182708226777
-24.231668275281763
-1.5874386697297034
5.943580206362771
-98.74919238493453
100.03189537057494
-179.81762829928076
132.95327993307887
-5.978143531948248
76.3319763409518
79.095706979113
162.82958069015135
53.58859766909216
253.1538377213986
30.871634584500562
69.77093965240027
129.07185715406393
-54.435960424925234
-199.08470282513895
7.136016423399518
25.139507208126837
-113.02068664025022
-46.094223083504886
92.94679452163096
21.26149086205981
127.7684518473782
9.671467519113763
82.56067868925773
110.47544109878065
-13.954510327235191
-72.66819458201277
24.241769812669535
-28.748056184765282
131.52984254149345
59.497019211483035
-53.73524107811008
-7.931807158290177
-36.791389535498766
126.29685221124107
62.284588008293824
80.74998443106216
106.60941844631837
76.79614530648709
12.367293397499832
73.64935764710707
-56.027839182448346
-48.20133630808471
-167.33660038564256
32.62932747932379
-24.07534340821095
113.14310865607389
-63.847391897987585
66.93693205385247
-53.21367573478328
105.26056632676858
33.10091064395915
-42.81015398239488
-17.14823696210641
168.74060649136618
84.5111523273728
139.52825764869556
157.56984506765386
159.54176284267731
128.3454123431008
43.75112794866661
153.1865323641728
-77.70060008386037
100.98539289669847
15.57944216178042
211.97201866363864
52.12685148518484
5.172957376101451
109.23330465979741
-21.949333615596817
76.2157885791086
113.97706959947323
8.662998177876105
147.60240413860188
15.682507266638318
139.40470140567433
26.77488282556762
-11.259241691419648
106.60446445331739
90.63842348833906
72.72736769073114
143.43401574556745
-31.36229543816922
-57.2722482972316
220.22095281941216
125.20040563547724
-45.621055120583186
3.647451443742156
8.473765586514471
99.68889276235869
212.68451639446684
181.0077880800165
-21.892044407241862
-98.90959768997362
293.53304529314005
-95.61022215500991
-10.947275320994063
192.28968159362273
37.17346976840942
104.0947801873904
57.58003736379352
204.2925809531055
-41.92378776231007
-10.446740099185334
-54.116639842370844
-72.50552028349736
17.94772622306729
-304.5369351243993
36.79378198489306
-185.70739031163754
-116.07045732065174
-24.93448523952032
-106.48430967517028
-120.67784219280162
-77.17681637404165
-114.33776886553821
-142.71867845602955
-27.461452594089906
-130.8406692996095
-64.47319819397157
-281.39092528997503
86.20137587552762
39.54445520442685
28.43878496093926
-20.164645131411472
51.20555823528905
204.78146171051517
-69.54294321355192
-89.6013784262384
28.086516203352716
-78.61718820530318
-35.197378526600204
-122.81726926158194
-17.577654241555642
-43.09317850943668
-102.52235316279084
-68.8367616953007
2.6683771286471547
21.150083175536253
-184.53772209624913
106.00571579839338
-123.03690128545766
50.01202539833483
-104.34710426666852
-57.753296950821635
46.09137116099714
-199.2092234497821
-0.64561510962554
-144.11245709250397
-5.5890081493511445
-107.12082392536261
192.34617577280557
-114.2259036102043
-153.57271375088868
24.686810419242
-35.290303210898884
-38.55478756398053
-124.6773080977437
35.520332270639116
-134.89958817872883
216.44475169840587
49.13443426827274
-28.37885346911699
-32.56971325480827
-68.03793534278324
214.9576822840416
43.83520672743863
9.248841906744328
-74.63663295714213
16.090036128312953
61.62402811557139
-104.81675646858618
-200.70273459930007
-47.606732257717454
94.59458968721424
-10.676314496067839
155.7546459342075
-37.09291262163812
91.74225602583839
87.22447723697286
24.80292977734174
-4.2871080726703035
-113.20921185258649
22.903459525291716
21.914907283204712
39.07622973772141
-83.3547940552954
-31.85615137734227
6.726426415628612
-101.68282096658199
-2.904129513584614
103.20882081540674
-73.23662836340051
-73.60874210993437
112.61237865858772
98.51962122173187
47.067666554930334
25.036624215620126
62.492327925699065
30.5257802227369
-70.69397756116324
81.32462352056845
-128.82045325847997
163.5783041077215
-24.53898120268681
-10.28037606608624
103.63369057547918
104.31313881097714
11.338357037426
273.6128786186895
-37.06396373923354
151.4023539160571
162.6427883774464
-22.14380551008395
-193.15422360351522
-7.549382424275066
99.0301168690568
-152.58353393104403
-50.53985347203189
59.88040466123844
97.02874763152752
85.25606284082689
-32.043213482467586
-8.159397961383968
171.76052866665813
-1.0765605652637689
41.94831595636382
17.092476606906224
0.5833218206849642
-16.48669927776981
-24.855342601970204
-77.53983938158842
-64.05081737687975
-48.96910785626391
103.10458237635031
-40.922617897440404
104.27861625310686
112.93559225727009
21.520008378629974
36.83366831767454
87.98428433259164
1.6906711534711683
-22.12154314278872
-156.88810634541971
53.42234829339765
-49.73663338866256
72.53127110460962
-112.07792570891672
107.48888177208134
42.67649594491314
75.02071779307718
135.63105952159734
-91.02700111626734
-20.33094624301269
182.75928669362872
128.67696577340092
115.06730153471625
252.09638845749336
183.15805678321675
105.11147966698806
115.11028309970318
94.24083484543186
-39.19739724636129
107.98119534568133
-45.30481550548245
146.7226506949052
84.9614038015958
-0.020716796926233627
68.35655929435858
-49.719031221051395
40.70109330909288
81.16694840323792
53.03064006631914
164.9086515630339
72.64878462950053
117.92924721324778
-4.749049494221374
14.09043819948316
97.39679818585884
3.816923808594211
121.66439064145419
103.96243808330259
-63.06715194534691
-67.76595676300433
191.92724318758093
149.18254837865402
-29.426754393726043
59.30082663437295
-12.417982375914399
166.4309764317672
197.53151414262558
67.78885438694635
-42.21443143329604
-70.78896358198271
206.137426465242
-107.57893034831669
-86.91126697221449
95.54242611950156
87.59161892212616
161.59824472569844
82.98198538594298
258.4089533786006
25.970920551945
-92.92463615496435
-37.31090473421646
-26.54332179344624
33.66328360511626
-300.8738319032679
27.264748514026756
-254.62949813538395
-111.45225803332742
-42.16633330116261
-140.58709305138484
-165.49322038209493
-75.91587391107343
-163.06907812055528
-167.19959802769694
-45.18368828833926
-232.15907491629713
-50.85059453787795
-272.1152683000556
148.61427985394403
0.9532639962158456
-18.447534632154806
42.71411850158046
11.237927829300244
242.01612061794899
-75.31492656271868
-126.43847632247473
-9.666825848438101
-84.83307696213106
29.183254224616412
-36.374097098904386
-30.94867166599861
-16.521274680201927
-94.14896386755721
-121.94711376729245
-17.64787237693369
87.08911315657612
-211.24794017941733
140.38286553972742
-125.97103954626795
91.56739079349468
-69.43450458261638
-132.12726542520892
38.050391265786615
-143.2374741573214
-16.988800234101078
-148.47553735184414
90.45632959169973
-84.40488850293252
153.54590585351528
-107.80793190103367
-132.29712745003653
-39.95010717090888
34.17172997721789
-21.17562870120028
-146.72388100489673
65.02467586664511
-80.95489019224695
196.82259426571468
72.31468979138043
-63.36095466462683
-134.33738692930865
-53.88981953356095
252.6153843903569
7.627989776232145
-37.295855352645866
-108.4469230933864
-5.26840353787685
141.5053399944407
-101.06451211613684
-201.32896756589852
-48.79225344630301
17.3443956911389
39.98940705121573
126.6711864259128
-44.021427678597604
24.843452921795006
136.03618807003858
51.56785375606476
-22.28737624671141
-41.877166110315684
98.26169368257959
-48.939121475992465
4.024560351377934
-95.33834152480597
-21.150124171194747
6.15739510992449
-25.131627554519937
-16.0991472698418
95.84125780901917
-56.774503386638514
-142.5246535222406
88.53297942027827
74.38061790860694
91.7817270996456
-29.453932392756826
-24.641992899021734
73.35594873866832
-90.76818502450226
129.86784016595146
-128.42519956297866
184.56376023210714
-111.4707681288609
66.69427687867494
75.91971317849911
142.17593295819393
56.55773423434393
223.60295263530472
17.216055678941487
121.7839895792394
125.81884896179218
-44.75888789500981
-162.03046723705597
8.573641629318061
43.89831298782378
-115.95654770721653
-112.80714425799978
79.61095017753293
26.674686991226917
84.64365516414779
-19.63941200469168
-23.046232673137922
125.2558030701734
-60.22312705365121
-36.509071790533426
-2.4261319491499576
-16.50590164647709
87.7831732379471
-7.860888997048654
-18.298375830735516
4.628007562938862
-100.13098084210526
95.5379741859542
67.96304498766803
51.07055560977584
35.642641005889736
74.86116297883035
22.535189861118546
122.12598648041488
10.800636319470975
11.647666359091566
-165.26770495283498
58.40735110931074
-99.68779843785111
110.27749107842281
-94.98016870438141
36.33576492417474
-43.468299525026666
51.22137622186564
31.486860516067686
-73.1753730985169
2.1227197011715724
154.83140053571154
124.35079580466267
117.19370407318308
233.93414406581348
131.79101847776263
182.81214843853073
56.547154831780745
120.18688603617494
-1.9461307002162034
158.48761540290388
-38.48519569656133
171.1187874805175
84.12839787033212
-20.015258667744387
121.34562465709134
-29.345701535868905
108.22407726743283
132.3746047619873
26.742521636747227
112.6547472069289
77.86859990431286
117.54956719736968
-46.85842970300845
-5.934215148146717
52.22402581845964
72.39949021963496
15.311923649054833
140.03555907642752
-62.58743412074263
-18.926414544720608
213.95421554105369
77.53773834799185
-38.30723049986724
24.10066082838788
-43.20342274184979
106.11824654808788
175.34695692487162
72.01971396758277
-74.43600339996347
-84.7467385867196
216.33560668993042
-106.89335577098176
-37.79407942782899
179.26790736014254
88.79186509571947
47.849228124389334
8.351228273052037
198.44753670401218
23.229868520315147
-84.891846631866
-38.06623302044095
-76.30292686395465
28.340918060371934
-332.88070940253976
45.27283139229577
-152.68515252606915
-26.51905638962664
-20.28629510429373
-130.13702427575703
-122.73755021791669
-141.90774508021101
-138.3027510476719
-100.75612601629162
28.54144130734688
-242.15668343874597
-100.00750497920875
-263.4817273067267
93.25779352662349
24.67020032434489
-76.66807751985876
55.00230662010129
31.870851478571087
213.12298560917216
-18.815894484926424
-138.07429873230726
31.12253430689806
-33.57365594062947
-68.47416942195464
-90.89673449294745
-25.983221024083697
-48.21317468882207
-154.40542678222445
-166.374915606736
0.04388229077990502
13.955957061014725
-180.9062021060884
201.89199873964023
-72.73304028164783
12.386827556292676
-140.82829861934056
-115.49382764308963
92.41128331894666
-97.81300460665577
67.80713576747513
-110.90661180587358
36.190347002049265
-7.815986549322105
103.99936038092358
-94.80236841554913
-198.04434273593182
55.39361525910296
37.7729410386672
-7.090142159807696
-192.6326251697505
42.4818148120561
-75.35887809476479
169.7830468580869
12.396760088674853
-57.082208641351755
-130.80736459953243
-115.27168916050604
286.7167189785481
-24.063356662373625
-47.50917951183503
-81.39553334135826
49.55954025414837
132.47644641851343
-158.74311671071794
-209.05154630714912
-61.07126839200785
-29.65677704430194
25.116529678163385
95.83629988942766
-108.74001650814103
47.92404267940589
70.26308040259637
33.798945861352706
-24.305926608022588
-6.348488351618876
62.03577480162209
-4.579954627914427
11.298494465248776
-161.13214544078397
8.848178405469213
4.879520450588748
-49.18549430687233
-21.619162106964723
54.102765625858275
-92.06493127251875
-79.86517903946041
24.499165117340123
85.48001586029253
6.733519752251661
-0.21264413531502413
-12.873888715008121
78.4093587458757
-40.97177818544206
57.13313310963541
-108.71643081104305
111.97311801634926
-27.217514583712468
70.78948085328686
37.64162883347822
118.12365559441507
67.7755840673025
266.7445491231124
7.879888501664443
85.85536713636326
122.2478492161477
-101.78224148886501
-205.0944370813405
-24.092418625626895
67.66893418515733
-105.5837540216244
-55.654608851001356
30.53263120695805
74.09929943036906
32.85926711469158
-59.101657323980895
68.286007704267
133.54283115823583
-85.49424032524647
-56.39191423386143
2.976958825797759
37.74093768935697
48.00019025910641
67.98940102975864
-44.61628006215743
-8.059242415236628
-69.22613623428502
124.9846467333419
-9.00029912484537
107.68370250854052
131.37449293576478
158.5756662387967
24.301757236618368
39.73047728346105
-33.56063616773136
-65.617362713055
-167.81988320578176
-5.794613067301199
-97.39343435838822
96.74641054748292
-114.82058504466498
123.21495033989
-51.25968048876756
76.51858652283451
77.975141382574
-49.597614115773276
-27.36321443492059
199.82420700649982
81.71228494688769
191.7885448201181
242.50285502116606
146.01282712319582
113.8926838973571
61.07968915186281
100.71565241326348
11.893539674512716
80.74801658345208
24.008588741656656
202.4852444703619
89.3549578931546
2.373760752423717
111.3820844534921
-88.49648087231144
74.44365910917381
45.76608761972427
11.724087198251336
162.97484986194132
19.177863787506
56.53743651662339
44.46622835935389
-0.47685496193414334
69.93325851963382
53.01422234746647
-5.564813840185124
138.0937512547296
9.746697838026556
-31.173075747367395
220.29703870796055
78.89556053495353
-19.280902557746515
73.7514766406051
-12.551096329082455
142.3718525998807
226.8098347133166
142.4951273471302
-64.55547547106626
-62.4158623631821
305.7520837443806
-27.629412844436253
-26.016554774006984
221.92118852454632
98.03578839677843
122.18091306390521
80.56611978836199
191.23247199740624
22.743637257740314
-39.339180102754405
-38.498237659549766
-2.1309461919056503
67.82816701014184
-367.0408946663391
-18.48953194615055
-242.47191592967772
-103.51716202698844
-16.740801036422777
-153.09664851778578
-176.71042614138864
-76.24053768951941
-170.0283171889301
-104.03999657821437
-0.4379631093014069
-219.57796413613272
8.704476477579476
-207.34604340402947
65.11565147302129
52.325913262321016
-38.49077743906278
15.348973042820734
-8.850991759631235
199.45972525023458
-62.6409149329352
-173.26632467718062
-73.2387209218834
-91.4794221839607
21.50532760803086
-106.36198306491914
4.177367833062979
32.11632857146377
-83.15063274499555
-86.48109646058332
9.11370666173781
4.117805264914338
-192.86863141082904
209.38310490247943
-126.78307379945869
64.88613263965722
-115.43605669658206
-114.62114209782027
34.61095495980373
-187.03468694631826
11.219768234281432
-128.2004696321342
68.35727783131755
-42.82401656252949
125.00384390886677
-118.09400103705286
-208.5861975350163
28.96453324319922
8.805573937659716
5.785363795094483
-94.2709904754237
26.386104354224756
-134.60232023896256
196.51013641830875
34.152574904675646
-104.82752530691822
-118.13768970121548
-76.39448922865894
315.60326262765216
-33.517340238568124
-21.246224629270344
-60.001943973798305
23.39511831253407
88.11875908642457
-126.34626263295726
-232.95343939048576
-118.91834796654095
74.27706751784397
4.317002307895724
49.47147639278454
-55.71176288447117
34.84985255932204
75.92268879725592
60.85700153894602
2.878486457644346
-17.802987981903414
14.977770931239384
27.433333384714928
44.07060248476901
-100.60642981870372
-87.67618034189823
-10.715901256446458
-118.36775575394144
-9.797914773015453
47.49737775098537
-85.04739086966774
-116.5408815696226
107.6382856369525
19.96112176297637
65.15900873490764
-1.6869987368869168
29.98165239304072
113.33673301173339
-94.61709429170742
100.08199423169253
-149.8015893371516
140.02854443384766
-40.063790403908314
0.21613765401863816
36.41097424429452
67.39197725291879
20.117496891890145
185.4957238569148
-17.674748587512312
71.22661751489952
201.93901687991365
-85.89133537393138
-250.27642076048667
-34.22434521325068
58.93551888042229
-121.18762921377635
-100.19586365010728
27.96693647618176
25.178250016354035
122.71821840248495
-38.00943474264414
-31.511769344989673
155.76497438186368
15.43719300673574
-53.943855424242
-45.31402766957879
-32.95281244605782
27.763164260075094
55.31986153445178
-50.97170256054889
-31.323117982942907
-85.75778841500757
96.24758412431348
16.756060214752505
113.15414192455927
76.46033055143495
136.6564684072896
-1.6732309751206045
137.44157902111067
-81.63178615400471
-30.091074160944554
-169.4323446118879
103.32866278026401
-52.44404224035421
68.45865162386247
-62.83593461570866
85.96184041855379
-14.40026199062387
41.069247119036575
92.2673587257888
-101.196123104603
-15.819894920835218
209.19494720602734
87.67539971731375
196.35247149971886
273.0537550646397
172.48965197520002
141.907096978091
85.2624048305084
165.30386961036402
13.246252779167062
82.52825214458014
-20.694348725802286
196.2079125740666
119.72096714297113
-13.454126405358526
63.818596733019504
-67.39406945074566
126.08110685029214
86.00628315117402
48.810595621251636
198.76654358793326
39.93331476409691
81.28800297423352
24.34719597105473
26.633635494613102
74.13290568829325
58.65167882152441
46.11937166927538
214.21870393464116
17.78267318766953
-28.931832172608566
211.0367739465233
70.48939822841504
-66.01547156994005
50.976419801885896
-27.370737284088765
110.31448366616142
248.05254939226717
91.62703169350746
-36.95738456951411
-82.98075477363585
264.21572860372584
-101.27388057001089
18.548429350989835
124.69211923376912
132.98130115655823
120.28562810241311
94.19758172886478
263.19087483053283
-8.745046854261936
